digraph Tree {
node [shape=box, style="filled, rounded", color="black", fontname="helvetica"] ;
edge [fontname="helvetica"] ;
0 [label="petal width (cm) <= 0.75\ngini = 0.67\nsamples = 96\nvalue = [46, 50, 54]\nclass = virginica", fillcolor="#faf7fe"] ;
1 [label="gini = 0.0\nsamples = 31\nvalue = [46, 0, 0]\nclass = setosa", fillcolor="#e58139"] ;
0 -> 1 [labeldistance=2.5, labelangle=45, headlabel="True"] ;
2 [label="petal width (cm) <= 1.65\ngini = 0.5\nsamples = 65\nvalue = [0, 50, 54]\nclass = virginica", fillcolor="#f6f0fd"] ;
0 -> 2 [labeldistance=2.5, labelangle=-45, headlabel="False"] ;
3 [label="petal length (cm) <= 4.95\ngini = 0.24\nsamples = 35\nvalue = [0, 49, 8]\nclass = versicolor", fillcolor="#59e996"] ;
2 -> 3 ;
4 [label="gini = 0.0\nsamples = 31\nvalue = [0, 47, 0]\nclass = versicolor", fillcolor="#39e581"] ;
3 -> 4 ;
5 [label="sepal width (cm) <= 2.75\ngini = 0.32\nsamples = 4\nvalue = [0, 2, 8]\nclass = virginica", fillcolor="#a06aec"] ;
3 -> 5 ;
6 [label="sepal width (cm) <= 2.45\ngini = 0.44\nsamples = 2\nvalue = [0, 2, 1]\nclass = versicolor", fillcolor="#9cf2c0"] ;
5 -> 6 ;
7 [label="gini = 0.0\nsamples = 1\nvalue = [0, 0, 1]\nclass = virginica", fillcolor="#8139e5"] ;
6 -> 7 ;
8 [label="gini = 0.0\nsamples = 1\nvalue = [0, 2, 0]\nclass = versicolor", fillcolor="#39e581"] ;
6 -> 8 ;
9 [label="gini = 0.0\nsamples = 2\nvalue = [0, 0, 7]\nclass = virginica", fillcolor="#8139e5"] ;
5 -> 9 ;
10 [label="petal length (cm) <= 4.85\ngini = 0.04\nsamples = 30\nvalue = [0, 1, 46]\nclass = virginica", fillcolor="#843de6"] ;
2 -> 10 ;
11 [label="sepal width (cm) <= 3.0\ngini = 0.32\nsamples = 3\nvalue = [0, 1, 4]\nclass = virginica", fillcolor="#a06aec"] ;
10 -> 11 ;
12 [label="gini = 0.0\nsamples = 2\nvalue = [0, 0, 4]\nclass = virginica", fillcolor="#8139e5"] ;
11 -> 12 ;
13 [label="gini = 0.0\nsamples = 1\nvalue = [0, 1, 0]\nclass = versicolor", fillcolor="#39e581"] ;
11 -> 13 ;
14 [label="gini = 0.0\nsamples = 27\nvalue = [0, 0, 42]\nclass = virginica", fillcolor="#8139e5"] ;
10 -> 14 ;
}